<?xml version="1.0"?>
<opencv_storage>
<cascade>
  <stageType>BOOST</stageType>
  <featureType>HAAR</featureType>
  <height>10</height>
  <width>10</width>
  <stageParams>
    <boostType>GAB</boostType>
    <minHitRate>9.9500000476837158e-01</minHitRate>
    <maxFalseAlarm>5.0000000000000000e-01</maxFalseAlarm>
    <weightTrimRate>9.4999999999999996e-01</weightTrimRate>
    <maxDepth>1</maxDepth>
    <maxWeakCount>100</maxWeakCount></stageParams>
  <featureParams>
    <maxCatCount>0</maxCatCount>
    <featSize>1</featSize>
    <mode>BASIC</mode></featureParams>
  <stageNum>5</stageNum>
  <stages>
    <!-- stage 0 -->
    <_>
      <maxWeakCount>2</maxWeakCount>
      <stageThreshold>-5.7217121124267578e-01</stageThreshold>
      <weakClassifiers>
        <_>
          <internalNodes>
            0 -1 2 -9.2129066586494446e-02</internalNodes>
          <leafValues>
            3.9019963145256042e-01 -9.9116653203964233e-01</leafValues></_>
        <_>
          <internalNodes>
            0 -1 5 -1.5119941532611847e-01</internalNodes>
          <leafValues>
            4.1899532079696655e-01 -9.9912452697753906e-01</leafValues></_></weakClassifiers></_>
    <!-- stage 1 -->
    <_>
      <maxWeakCount>2</maxWeakCount>
      <stageThreshold>-4.6061712503433228e-01</stageThreshold>
      <weakClassifiers>
        <_>
          <internalNodes>
            0 -1 1 -1.5505409240722656e-01</internalNodes>
          <leafValues>
            7.2946858406066895e-01 -9.7892624139785767e-01</leafValues></_>
        <_>
          <internalNodes>
            0 -1 7 5.6260369718074799e-02</internalNodes>
          <leafValues>
            -9.8668640851974487e-01 5.1830911636352539e-01</leafValues></_></weakClassifiers></_>
    <!-- stage 2 -->
    <_>
      <maxWeakCount>2</maxWeakCount>
      <stageThreshold>-6.3655698299407959e-01</stageThreshold>
      <weakClassifiers>
        <_>
          <internalNodes>
            0 -1 4 -4.1205197572708130e-01</internalNodes>
          <leafValues>
            2.9433271288871765e-01 -9.7612249851226807e-01</leafValues></_>
        <_>
          <internalNodes>
            0 -1 8 -7.7281694393604994e-04</internalNodes>
          <leafValues>
            4.2775380611419678e-01 -9.3088966608047485e-01</leafValues></_></weakClassifiers></_>
    <!-- stage 3 -->
    <_>
      <maxWeakCount>3</maxWeakCount>
      <stageThreshold>-1.0340648889541626e+00</stageThreshold>
      <weakClassifiers>
        <_>
          <internalNodes>
            0 -1 0 -6.2045371532440186e-01</internalNodes>
          <leafValues>
            6.5014576911926270e-01 -9.4232189655303955e-01</leafValues></_>
        <_>
          <internalNodes>
            0 -1 6 -3.1518661975860596e-01</internalNodes>
          <leafValues>
            9.2827606201171875e-01 -7.8616315126419067e-01</leafValues></_>
        <_>
          <internalNodes>
            0 -1 3 -2.0163133740425110e-01</internalNodes>
          <leafValues>
            6.9442015886306763e-01 -8.8264679908752441e-01</leafValues></_></weakClassifiers></_>
    <!-- stage 4 -->
    <_>
      <maxWeakCount>2</maxWeakCount>
      <stageThreshold>-5.7200855016708374e-01</stageThreshold>
      <weakClassifiers>
        <_>
          <internalNodes>
            0 -1 9 2.6660098228603601e-04</internalNodes>
          <leafValues>
            -9.5614254474639893e-01 6.1240309476852417e-01</leafValues></_>
        <_>
          <internalNodes>
            0 -1 10 1.4143261360004544e-03</internalNodes>
          <leafValues>
            -1. 3.8413396477699280e-01</leafValues></_></weakClassifiers></_></stages>
  <features>
    <_>
      <rects>
        <_>
          1 0 6 9 -1.</_>
        <_>
          4 0 3 9 2.</_></rects>
      <tilted>0</tilted></_>
    <_>
      <rects>
        <_>
          1 3 6 2 -1.</_>
        <_>
          4 3 3 2 2.</_></rects>
      <tilted>0</tilted></_>
    <_>
      <rects>
        <_>
          2 0 6 4 -1.</_>
        <_>
          2 0 3 2 2.</_>
        <_>
          5 2 3 2 2.</_></rects>
      <tilted>0</tilted></_>
    <_>
      <rects>
        <_>
          2 2 4 5 -1.</_>
        <_>
          4 2 2 5 2.</_></rects>
      <tilted>0</tilted></_>
    <_>
      <rects>
        <_>
          3 2 6 8 -1.</_>
        <_>
          5 2 2 8 3.</_></rects>
      <tilted>0</tilted></_>
    <_>
      <rects>
        <_>
          3 4 5 6 -1.</_>
        <_>
          3 6 5 2 3.</_></rects>
      <tilted>0</tilted></_>
    <_>
      <rects>
        <_>
          5 0 5 4 -1.</_>
        <_>
          5 2 5 2 2.</_></rects>
      <tilted>0</tilted></_>
    <_>
      <rects>
        <_>
          6 0 4 4 -1.</_>
        <_>
          6 0 2 2 2.</_>
        <_>
          8 2 2 2 2.</_></rects>
      <tilted>0</tilted></_>
    <_>
      <rects>
        <_>
          6 4 2 1 -1.</_>
        <_>
          7 4 1 1 2.</_></rects>
      <tilted>0</tilted></_>
    <_>
      <rects>
        <_>
          7 5 1 2 -1.</_>
        <_>
          7 6 1 1 2.</_></rects>
      <tilted>0</tilted></_>
    <_>
      <rects>
        <_>
          8 4 2 2 -1.</_>
        <_>
          8 4 1 1 2.</_>
        <_>
          9 5 1 1 2.</_></rects>
      <tilted>0</tilted></_></features></cascade>
</opencv_storage>
